svm_type epsilon_svr
kernel_type rbf
gamma 1
nr_class 2
total_sv 128
rho -1.44403
SV
4 
4 
4 
4 
4 
4 
4 
-4 
-4 
4 
4 
4 
4 
4 
-4 
-4 
-4 
-4 
-4 
-4 
-4 
-4 
-4 
-4 
-4 
-4 
-4 
-4 
-4 
-4 
-4 
-4 
-4 
-4 
-4 
-4 
-4 
-4 
-4 
4 
-4 
-4 
-4 
-4 
-4 
-4 
-4 
-4 
-4 
-4 
-4 
4 
4 
4 
4 
4 
4 
4 
4 
4 
4 
4 
4 
4 
4 
4 
4 
4 
4 
-4 
-4 
-4 
4 
4 
-4 
-4 
-4 
-4 
-4 
-4 
-4 
-4 
-4 
-4 
4 
-4 
-4 
-4 
-4 
-4 
-4 
-4 
-4 
-4 
-4 
-4 
-4 
-4 
4 
4 
4 
4 
4 
4 
4 
4 
4 
4 
4 
4 
4 
4 
4 
4 
4 
4 
4 
4 
4 
4 
4 
4 
4 
4 
4 
4 
4 
4 
